svm_type one_class
kernel_type precomputed
nr_class 2
total_sv 84
rho 2.77645
SV
0.6589775455006527 0:1 
0.7825602376154244 0:2 
1 0:3 
0.6941234838787745 0:4 
1 0:5 
0.9273142533863519 0:6 
1 0:7 
0.1827640891573032 0:8 
0.7845394860852701 0:9 
1 0:10 
0.1583524800155229 0:11 
0.9905878798748291 0:13 
0.5802591152678903 0:14 
0.3607836727095008 0:15 
1 0:16 
0.8312084228852146 0:17 
0.7243658473878569 0:18 
0.6750293436438308 0:19 
0.3823243642893268 0:20 
0.4104501723173238 0:21 
0.4172468500355447 0:23 
0.03201096985866664 0:25 
1 0:29 
0.9385821599483603 0:31 
0.2575410787430395 0:32 
0.3052596516293922 0:33 
0.301272407408051 0:35 
0.5077972880209862 0:36 
0.776144019388416 0:37 
0.9350718531276726 0:38 
0.4151899896551951 0:40 
0.4887040581310104 0:41 
0.613282498569066 0:42 
0.6839783033678534 0:43 
0.4302076813610702 0:44 
0.8493313558772702 0:45 
0.9719496096443491 0:46 
0.5346267388574641 0:47 
0.2394046637424037 0:48 
0.2346114252415239 0:49 
0.5854245546271239 0:50 
1 0:51 
0.9076990554736845 0:53 
0.7936201533979542 0:54 
0.4007222864465612 0:56 
1 0:57 
0.0305135393326589 0:58 
0.7983183988708721 0:59 
1 0:60 
0.2685429515659011 0:61 
0.2394452660090539 0:62 
0.762634674039083 0:64 
0.8060643335613447 0:65 
0.8338596465988839 0:66 
0.4526462491137031 0:67 
0.3091351253138414 0:68 
0.6640204391758926 0:69 
0.7951609651944186 0:70 
0.2162894088383347 0:71 
0.4383301942660385 0:72 
0.288573039750031 0:73 
1 0:74 
0.5271157929510505 0:75 
0.5163914688762349 0:76 
0.9947520140979124 0:77 
0.6507372892695281 0:78 
0.1232488446956939 0:79 
0.2698046946610886 0:80 
0.1295544211880426 0:81 
0.205743819335211 0:82 
0.7865695218108505 0:83 
0.4139590078706549 0:84 
0.5833603768051412 0:85 
0.34573684282951 0:86 
1 0:88 
1 0:89 
0.2739186310534917 0:90 
0.1880865484044998 0:91 
0.5006982105395805 0:92 
0.004444990146645659 0:93 
0.6525036469146673 0:95 
1 0:96 
0.1665206003524069 0:99 
1 0:100 
